digraph Tree {
node [shape=box, style="filled, rounded", color="black", fontname="helvetica"] ;
edge [fontname="helvetica"] ;
0 [label="start_date <= 1.5966288035205612e+18\nsquared_error = 124.44\nsamples = 155\nvalue = 8.71", fillcolor="#fae9dd"] ;
1 [label="percent_racial_minority <= 14.6\nsquared_error = 58.81\nsamples = 142\nvalue = 6.21", fillcolor="#fcefe7"] ;
0 -> 1 [labeldistance=2.5, labelangle=45, headlabel="True"] ;
2 [label="percent_republican_2016_pres <= 0.67\nsquared_error = 4.69\nsamples = 77\nvalue = 2.04", fillcolor="#fefaf7"] ;
1 -> 2 ;
3 [label="percent_without_high_school_diploma <= 12.2\nsquared_error = 5.7\nsamples = 41\nvalue = 2.84", fillcolor="#fef8f4"] ;
2 -> 3 ;
4 [label="median_non_home_dwell_time_percent_increase_jan_to_april <= -420.11\nsquared_error = 3.3\nsamples = 36\nvalue = 2.39", fillcolor="#fef9f6"] ;
3 -> 4 ;
5 [label="percent_freq_or_always_mask_use <= 0.92\nsquared_error = 3.42\nsamples = 7\nvalue = 4.34", fillcolor="#fdf4ee"] ;
4 -> 5 ;
6 [label="percent_below_poverty_line <= 8.55\nsquared_error = 0.48\nsamples = 5\nvalue = 3.27", fillcolor="#fdf7f2"] ;
5 -> 6 ;
7 [label="telework_score <= 0.32\nsquared_error = 0.0\nsamples = 2\nvalue = 2.39", fillcolor="#fef9f6"] ;
6 -> 7 ;
8 [label="squared_error = 0.0\nsamples = 1\nvalue = 2.37", fillcolor="#fef9f6"] ;
7 -> 8 ;
9 [label="squared_error = 0.0\nsamples = 1\nvalue = 2.43", fillcolor="#fef9f5"] ;
7 -> 9 ;
10 [label="telework_score <= 0.27\nsquared_error = 0.02\nsamples = 3\nvalue = 3.8", fillcolor="#fdf5f0"] ;
6 -> 10 ;
11 [label="squared_error = 0.0\nsamples = 1\nvalue = 3.52", fillcolor="#fdf6f1"] ;
10 -> 11 ;
12 [label="percent_racial_minority <= 10.55\nsquared_error = 0.0\nsamples = 2\nvalue = 3.87", fillcolor="#fdf5f0"] ;
10 -> 12 ;
13 [label="squared_error = 0.0\nsamples = 1\nvalue = 3.89", fillcolor="#fdf5f0"] ;
12 -> 13 ;
14 [label="squared_error = 0.0\nsamples = 1\nvalue = 3.84", fillcolor="#fdf5f0"] ;
12 -> 14 ;
15 [label="percent_freq_or_always_mask_use <= 0.94\nsquared_error = 0.06\nsamples = 2\nvalue = 7.2", fillcolor="#fbede3"] ;
5 -> 15 ;
16 [label="squared_error = 0.0\nsamples = 1\nvalue = 7.02", fillcolor="#fbede3"] ;
15 -> 16 ;
17 [label="squared_error = -0.0\nsamples = 1\nvalue = 7.55", fillcolor="#fbece1"] ;
15 -> 17 ;
18 [label="percent_without_high_school_diploma <= 9.4\nsquared_error = 2.34\nsamples = 29\nvalue = 1.99", fillcolor="#fefaf7"] ;
4 -> 18 ;
19 [label="percent_below_poverty_line <= 20.2\nsquared_error = 1.19\nsamples = 11\nvalue = 1.01", fillcolor="#fefcfb"] ;
18 -> 19 ;
20 [label="percent_republican_2016_pres <= 0.48\nsquared_error = 0.12\nsamples = 10\nvalue = 0.78", fillcolor="#fffdfc"] ;
19 -> 20 ;
21 [label="percent_below_poverty_line <= 13.95\nsquared_error = 0.0\nsamples = 2\nvalue = 1.28", fillcolor="#fefcfa"] ;
20 -> 21 ;
22 [label="squared_error = 0.0\nsamples = 1\nvalue = 1.3", fillcolor="#fefcfa"] ;
21 -> 22 ;
23 [label="squared_error = 0.0\nsamples = 1\nvalue = 1.27", fillcolor="#fefcfa"] ;
21 -> 23 ;
24 [label="percent_below_poverty_line <= 11.9\nsquared_error = 0.05\nsamples = 8\nvalue = 0.6", fillcolor="#fffefd"] ;
20 -> 24 ;
25 [label="percent_without_high_school_diploma <= 6.8\nsquared_error = 0.02\nsamples = 4\nvalue = 0.44", fillcolor="#fffefd"] ;
24 -> 25 ;
26 [label="squared_error = -0.0\nsamples = 1\nvalue = 0.59", fillcolor="#fffefd"] ;
25 -> 26 ;
27 [label="telework_score <= 0.26\nsquared_error = 0.01\nsamples = 3\nvalue = 0.34", fillcolor="#fffefe"] ;
25 -> 27 ;
28 [label="squared_error = 0.0\nsamples = 1\nvalue = 0.43", fillcolor="#fffefd"] ;
27 -> 28 ;
29 [label="percent_over_65 <= 21.55\nsquared_error = 0.0\nsamples = 2\nvalue = 0.28", fillcolor="#fffefe"] ;
27 -> 29 ;
30 [label="squared_error = 0.0\nsamples = 1\nvalue = 0.32", fillcolor="#fffefe"] ;
29 -> 30 ;
31 [label="squared_error = -0.0\nsamples = 1\nvalue = 0.21", fillcolor="#fffefe"] ;
29 -> 31 ;
32 [label="percent_uninsured <= 5.3\nsquared_error = 0.0\nsamples = 4\nvalue = 0.81", fillcolor="#fffdfc"] ;
24 -> 32 ;
33 [label="median_non_home_dwell_time_percent_increase_jan_to_april <= -287.55\nsquared_error = 0.0\nsamples = 3\nvalue = 0.79", fillcolor="#fffdfc"] ;
32 -> 33 ;
34 [label="squared_error = 0.0\nsamples = 1\nvalue = 0.75", fillcolor="#fffdfc"] ;
33 -> 34 ;
35 [label="percent_without_high_school_diploma <= 8.85\nsquared_error = 0.0\nsamples = 2\nvalue = 0.81", fillcolor="#fffdfc"] ;
33 -> 35 ;
36 [label="squared_error = 0.0\nsamples = 1\nvalue = 0.81", fillcolor="#fffdfc"] ;
35 -> 36 ;
37 [label="squared_error = -0.0\nsamples = 1\nvalue = 0.82", fillcolor="#fffdfc"] ;
35 -> 37 ;
38 [label="squared_error = 0.0\nsamples = 1\nvalue = 0.94", fillcolor="#fffdfb"] ;
32 -> 38 ;
39 [label="squared_error = -0.0\nsamples = 1\nvalue = 5.52", fillcolor="#fcf1e9"] ;
19 -> 39 ;
40 [label="percent_without_high_school_diploma <= 10.25\nsquared_error = 2.12\nsamples = 18\nvalue = 2.57", fillcolor="#fef9f5"] ;
18 -> 40 ;
41 [label="percent_racial_minority <= 13.15\nsquared_error = 1.79\nsamples = 8\nvalue = 3.44", fillcolor="#fdf6f1"] ;
40 -> 41 ;
42 [label="percent_racial_minority <= 6.5\nsquared_error = 1.47\nsamples = 6\nvalue = 4.06", fillcolor="#fdf5ef"] ;
41 -> 42 ;
43 [label="percent_uninsured <= 6.2\nsquared_error = 0.15\nsamples = 2\nvalue = 1.49", fillcolor="#fefbf9"] ;
42 -> 43 ;
44 [label="squared_error = 0.0\nsamples = 1\nvalue = 1.87", fillcolor="#fefaf8"] ;
43 -> 44 ;
45 [label="squared_error = -0.0\nsamples = 1\nvalue = 1.1", fillcolor="#fefcfb"] ;
43 -> 45 ;
46 [label="median_non_home_dwell_time_percent_increase_jan_to_april <= -220.5\nsquared_error = 0.14\nsamples = 4\nvalue = 4.57", fillcolor="#fdf4ed"] ;
42 -> 46 ;
47 [label="population_density <= 102.37\nsquared_error = 0.01\nsamples = 2\nvalue = 4.94", fillcolor="#fcf3ec"] ;
46 -> 47 ;
48 [label="squared_error = 0.0\nsamples = 1\nvalue = 4.88", fillcolor="#fcf3ec"] ;
47 -> 48 ;
49 [label="squared_error = 0.0\nsamples = 1\nvalue = 5.04", fillcolor="#fcf2eb"] ;
47 -> 49 ;
50 [label="telework_score <= 0.28\nsquared_error = 0.0\nsamples = 2\nvalue = 4.21", fillcolor="#fdf4ee"] ;
46 -> 50 ;
51 [label="squared_error = 0.0\nsamples = 1\nvalue = 4.18", fillcolor="#fdf5ef"] ;
50 -> 51 ;
52 [label="squared_error = -0.0\nsamples = 1\nvalue = 4.33", fillcolor="#fdf4ee"] ;
50 -> 52 ;
53 [label="start_date <= 1.5917904026025329e+18\nsquared_error = 0.13\nsamples = 2\nvalue = 2.2", fillcolor="#fef9f6"] ;
41 -> 53 ;
54 [label="squared_error = 0.0\nsamples = 1\nvalue = 1.84", fillcolor="#fefaf8"] ;
53 -> 54 ;
55 [label="squared_error = -0.0\nsamples = 1\nvalue = 2.57", fillcolor="#fef9f5"] ;
53 -> 55 ;
56 [label="percent_freq_or_always_mask_use <= 0.8\nsquared_error = 0.67\nsamples = 10\nvalue = 1.59", fillcolor="#fefbf9"] ;
40 -> 56 ;
57 [label="percent_over_65 <= 18.55\nsquared_error = 0.02\nsamples = 3\nvalue = 0.64", fillcolor="#fffdfc"] ;
56 -> 57 ;
58 [label="squared_error = 0.0\nsamples = 1\nvalue = 0.88", fillcolor="#fffdfc"] ;
57 -> 58 ;
59 [label="percent_republican_2016_pres <= 0.59\nsquared_error = 0.0\nsamples = 2\nvalue = 0.58", fillcolor="#fffefd"] ;
57 -> 59 ;
60 [label="squared_error = 0.0\nsamples = 1\nvalue = 0.63", fillcolor="#fffdfd"] ;
59 -> 60 ;
61 [label="squared_error = -0.0\nsamples = 1\nvalue = 0.54", fillcolor="#fffefd"] ;
59 -> 61 ;
62 [label="percent_without_high_school_diploma <= 11.4\nsquared_error = 0.38\nsamples = 7\nvalue = 2.02", fillcolor="#fefaf7"] ;
56 -> 62 ;
63 [label="percent_below_poverty_line <= 12.4\nsquared_error = 0.23\nsamples = 4\nvalue = 2.58", fillcolor="#fef9f5"] ;
62 -> 63 ;
64 [label="squared_error = 0.0\nsamples = 1\nvalue = 1.7", fillcolor="#fefbf8"] ;
63 -> 64 ;
65 [label="start_date <= 1.5878592362163732e+18\nsquared_error = 0.05\nsamples = 3\nvalue = 2.8", fillcolor="#fef8f4"] ;
63 -> 65 ;
66 [label="percent_republican_2016_pres <= 0.61\nsquared_error = 0.01\nsamples = 2\nvalue = 2.92", fillcolor="#fdf8f3"] ;
65 -> 66 ;
67 [label="squared_error = 0.0\nsamples = 1\nvalue = 3.03", fillcolor="#fdf7f3"] ;
66 -> 67 ;
68 [label="squared_error = -0.0\nsamples = 1\nvalue = 2.87", fillcolor="#fef8f4"] ;
66 -> 68 ;
69 [label="squared_error = -0.0\nsamples = 1\nvalue = 2.44", fillcolor="#fef9f5"] ;
65 -> 69 ;
70 [label="percent_without_high_school_diploma <= 11.95\nsquared_error = 0.01\nsamples = 3\nvalue = 1.55", fillcolor="#fefbf9"] ;
62 -> 70 ;
71 [label="percent_below_poverty_line <= 16.35\nsquared_error = 0.0\nsamples = 2\nvalue = 1.58", fillcolor="#fefbf9"] ;
70 -> 71 ;
72 [label="squared_error = 0.0\nsamples = 1\nvalue = 1.63", fillcolor="#fefbf9"] ;
71 -> 72 ;
73 [label="squared_error = 0.0\nsamples = 1\nvalue = 1.57", fillcolor="#fefbf9"] ;
71 -> 73 ;
74 [label="squared_error = -0.0\nsamples = 1\nvalue = 1.39", fillcolor="#fefcfa"] ;
70 -> 74 ;
75 [label="percent_over_65 <= 23.7\nsquared_error = 8.4\nsamples = 5\nvalue = 7.06", fillcolor="#fbede3"] ;
3 -> 75 ;
76 [label="percent_below_poverty_line <= 13.15\nsquared_error = 2.86\nsamples = 4\nvalue = 8.05", fillcolor="#fbebdf"] ;
75 -> 76 ;
77 [label="squared_error = 0.0\nsamples = 1\nvalue = 5.98", fillcolor="#fcf0e7"] ;
76 -> 77 ;
78 [label="median_non_home_dwell_time_percent_increase_jan_to_april <= -320.76\nsquared_error = 1.08\nsamples = 3\nvalue = 9.09", fillcolor="#fae8db"] ;
76 -> 78 ;
79 [label="squared_error = 0.0\nsamples = 1\nvalue = 10.85", fillcolor="#f9e4d4"] ;
78 -> 79 ;
80 [label="population_density <= 137.14\nsquared_error = 0.05\nsamples = 2\nvalue = 8.5", fillcolor="#fbeade"] ;
78 -> 80 ;
81 [label="squared_error = 0.0\nsamples = 1\nvalue = 8.18", fillcolor="#fbebdf"] ;
80 -> 81 ;
82 [label="squared_error = 0.0\nsamples = 1\nvalue = 8.66", fillcolor="#fbe9dd"] ;
80 -> 82 ;
83 [label="squared_error = -0.0\nsamples = 1\nvalue = 1.08", fillcolor="#fefcfb"] ;
75 -> 83 ;
84 [label="median_non_home_dwell_time_percent_increase_jan_to_april <= -382.13\nsquared_error = 1.05\nsamples = 36\nvalue = 0.9", fillcolor="#fffdfb"] ;
2 -> 84 ;
85 [label="squared_error = 0.0\nsamples = 1\nvalue = 5.35", fillcolor="#fcf2ea"] ;
84 -> 85 ;
86 [label="median_non_home_dwell_time_percent_increase_jan_to_april <= -217.92\nsquared_error = 0.67\nsamples = 35\nvalue = 0.81", fillcolor="#fffdfc"] ;
84 -> 86 ;
87 [label="percent_freq_or_always_mask_use <= 0.66\nsquared_error = 0.08\nsamples = 19\nvalue = 0.49", fillcolor="#fffefd"] ;
86 -> 87 ;
88 [label="percent_freq_or_always_mask_use <= 0.6\nsquared_error = 0.0\nsamples = 4\nvalue = 0.16", fillcolor="#fffffe"] ;
87 -> 88 ;
89 [label="percent_freq_or_always_mask_use <= 0.58\nsquared_error = 0.0\nsamples = 2\nvalue = 0.19", fillcolor="#fffffe"] ;
88 -> 89 ;
90 [label="squared_error = 0.0\nsamples = 1\nvalue = 0.18", fillcolor="#fffffe"] ;
89 -> 90 ;
91 [label="squared_error = -0.0\nsamples = 1\nvalue = 0.2", fillcolor="#fffffe"] ;
89 -> 91 ;
92 [label="percent_republican_2016_pres <= 0.75\nsquared_error = 0.0\nsamples = 2\nvalue = 0.14", fillcolor="#fffffe"] ;
88 -> 92 ;
93 [label="squared_error = 0.0\nsamples = 1\nvalue = 0.14", fillcolor="#fffffe"] ;
92 -> 93 ;
94 [label="squared_error = 0.0\nsamples = 1\nvalue = 0.14", fillcolor="#fffffe"] ;
92 -> 94 ;
95 [label="percent_households_more_people_than_rooms <= 0.95\nsquared_error = 0.07\nsamples = 15\nvalue = 0.56", fillcolor="#fffefd"] ;
87 -> 95 ;
96 [label="percent_republican_2016_pres <= 0.74\nsquared_error = 0.02\nsamples = 4\nvalue = 0.37", fillcolor="#fffefe"] ;
95 -> 96 ;
97 [label="percent_racial_minority <= 4.55\nsquared_error = 0.0\nsamples = 3\nvalue = 0.43", fillcolor="#fffefd"] ;
96 -> 97 ;
98 [label="squared_error = 0.0\nsamples = 1\nvalue = 0.39", fillcolor="#fffefd"] ;
97 -> 98 ;
99 [label="population_density <= 28.21\nsquared_error = 0.0\nsamples = 2\nvalue = 0.49", fillcolor="#fffefd"] ;
97 -> 99 ;
100 [label="squared_error = 0.0\nsamples = 1\nvalue = 0.48", fillcolor="#fffefd"] ;
99 -> 100 ;
101 [label="squared_error = 0.0\nsamples = 1\nvalue = 0.5", fillcolor="#fffefd"] ;
99 -> 101 ;
102 [label="squared_error = -0.0\nsamples = 1\nvalue = 0.14", fillcolor="#fffffe"] ;
96 -> 102 ;
103 [label="percent_freq_or_always_mask_use <= 0.83\nsquared_error = 0.06\nsamples = 11\nvalue = 0.7", fillcolor="#fffdfc"] ;
95 -> 103 ;
104 [label="percent_freq_or_always_mask_use <= 0.69\nsquared_error = 0.03\nsamples = 10\nvalue = 0.75", fillcolor="#fffdfc"] ;
103 -> 104 ;
105 [label="squared_error = 0.0\nsamples = 1\nvalue = 1.09", fillcolor="#fefcfb"] ;
104 -> 105 ;
106 [label="percent_uninsured <= 4.05\nsquared_error = 0.02\nsamples = 9\nvalue = 0.71", fillcolor="#fffdfc"] ;
104 -> 106 ;
107 [label="squared_error = 0.0\nsamples = 1\nvalue = 1.03", fillcolor="#fefcfb"] ;
106 -> 107 ;
108 [label="population_density <= 85.66\nsquared_error = 0.01\nsamples = 8\nvalue = 0.68", fillcolor="#fffdfc"] ;
106 -> 108 ;
109 [label="percent_freq_or_always_mask_use <= 0.76\nsquared_error = 0.01\nsamples = 4\nvalue = 0.62", fillcolor="#fffdfd"] ;
108 -> 109 ;
110 [label="percent_freq_or_always_mask_use <= 0.72\nsquared_error = 0.0\nsamples = 3\nvalue = 0.67", fillcolor="#fffdfc"] ;
109 -> 110 ;
111 [label="percent_over_65 <= 19.9\nsquared_error = 0.0\nsamples = 2\nvalue = 0.68", fillcolor="#fffdfc"] ;
110 -> 111 ;
112 [label="squared_error = 0.0\nsamples = 1\nvalue = 0.68", fillcolor="#fffdfc"] ;
111 -> 112 ;
113 [label="squared_error = -0.0\nsamples = 1\nvalue = 0.67", fillcolor="#fffdfc"] ;
111 -> 113 ;
114 [label="squared_error = 0.0\nsamples = 1\nvalue = 0.66", fillcolor="#fffdfc"] ;
110 -> 114 ;
115 [label="squared_error = 0.0\nsamples = 1\nvalue = 0.52", fillcolor="#fffefd"] ;
109 -> 115 ;
116 [label="population_density <= 159.27\nsquared_error = 0.01\nsamples = 4\nvalue = 0.77", fillcolor="#fffdfc"] ;
108 -> 116 ;
117 [label="percent_uninsured <= 8.45\nsquared_error = 0.0\nsamples = 2\nvalue = 0.84", fillcolor="#fffdfc"] ;
116 -> 117 ;
118 [label="squared_error = 0.0\nsamples = 1\nvalue = 0.89", fillcolor="#fffdfc"] ;
117 -> 118 ;
119 [label="squared_error = -0.0\nsamples = 1\nvalue = 0.8", fillcolor="#fffdfc"] ;
117 -> 119 ;
120 [label="population_density <= 215.5\nsquared_error = 0.0\nsamples = 2\nvalue = 0.7", fillcolor="#fffdfc"] ;
116 -> 120 ;
121 [label="squared_error = 0.0\nsamples = 1\nvalue = 0.7", fillcolor="#fffdfc"] ;
120 -> 121 ;
122 [label="squared_error = 0.0\nsamples = 1\nvalue = 0.71", fillcolor="#fffdfc"] ;
120 -> 122 ;
123 [label="squared_error = -0.0\nsamples = 1\nvalue = 0.11", fillcolor="#ffffff"] ;
103 -> 123 ;
124 [label="percent_freq_or_always_mask_use <= 0.67\nsquared_error = 1.1\nsamples = 16\nvalue = 1.19", fillcolor="#fefcfa"] ;
86 -> 124 ;
125 [label="percent_racial_minority <= 3.95\nsquared_error = 0.2\nsamples = 7\nvalue = 0.4", fillcolor="#fffefd"] ;
124 -> 125 ;
126 [label="percent_racial_minority <= 3.25\nsquared_error = 0.21\nsamples = 3\nvalue = 0.88", fillcolor="#fffdfc"] ;
125 -> 126 ;
127 [label="squared_error = 0.0\nsamples = 1\nvalue = 0.25", fillcolor="#fffefe"] ;
126 -> 127 ;
128 [label="percent_over_65 <= 21.6\nsquared_error = 0.02\nsamples = 2\nvalue = 1.2", fillcolor="#fefcfa"] ;
126 -> 128 ;
129 [label="squared_error = 0.0\nsamples = 1\nvalue = 1.04", fillcolor="#fefcfb"] ;
128 -> 129 ;
130 [label="squared_error = 0.0\nsamples = 1\nvalue = 1.36", fillcolor="#fefcfa"] ;
128 -> 130 ;
131 [label="percent_uninsured <= 6.85\nsquared_error = 0.02\nsamples = 4\nvalue = 0.16", fillcolor="#fffffe"] ;
125 -> 131 ;
132 [label="median_non_home_dwell_time_percent_increase_jan_to_april <= -193.96\nsquared_error = 0.0\nsamples = 3\nvalue = 0.24", fillcolor="#fffefe"] ;
131 -> 132 ;
133 [label="squared_error = 0.0\nsamples = 1\nvalue = 0.3", fillcolor="#fffefe"] ;
132 -> 133 ;
134 [label="percent_uninsured <= 4.85\nsquared_error = 0.0\nsamples = 2\nvalue = 0.17", fillcolor="#fffffe"] ;
132 -> 134 ;
135 [label="squared_error = 0.0\nsamples = 1\nvalue = 0.18", fillcolor="#fffffe"] ;
134 -> 135 ;
136 [label="squared_error = 0.0\nsamples = 1\nvalue = 0.16", fillcolor="#fffffe"] ;
134 -> 136 ;
137 [label="squared_error = 0.0\nsamples = 1\nvalue = 0.0", fillcolor="#ffffff"] ;
131 -> 137 ;
138 [label="telework_score <= 0.26\nsquared_error = 1.01\nsamples = 9\nvalue = 1.7", fillcolor="#fefbf8"] ;
124 -> 138 ;
139 [label="telework_score <= 0.23\nsquared_error = 0.28\nsamples = 6\nvalue = 1.21", fillcolor="#fefcfa"] ;
138 -> 139 ;
140 [label="squared_error = 0.0\nsamples = 1\nvalue = 2.19", fillcolor="#fefaf6"] ;
139 -> 140 ;
141 [label="percent_households_more_people_than_rooms <= 1.35\nsquared_error = 0.06\nsamples = 5\nvalue = 0.97", fillcolor="#fefdfb"] ;
139 -> 141 ;
142 [label="median_non_home_dwell_time_percent_increase_jan_to_april <= -145.78\nsquared_error = 0.02\nsamples = 2\nvalue = 0.82", fillcolor="#fffdfc"] ;
141 -> 142 ;
143 [label="squared_error = 0.0\nsamples = 1\nvalue = 0.94", fillcolor="#fffdfb"] ;
142 -> 143 ;
144 [label="squared_error = -0.0\nsamples = 1\nvalue = 0.64", fillcolor="#fffdfc"] ;
142 -> 144 ;
145 [label="percent_without_high_school_diploma <= 11.85\nsquared_error = 0.01\nsamples = 3\nvalue = 1.22", fillcolor="#fefcfa"] ;
141 -> 145 ;
146 [label="squared_error = 0.0\nsamples = 1\nvalue = 1.36", fillcolor="#fefcfa"] ;
145 -> 146 ;
147 [label="telework_score <= 0.25\nsquared_error = 0.0\nsamples = 2\nvalue = 1.15", fillcolor="#fefcfa"] ;
145 -> 147 ;
148 [label="squared_error = 0.0\nsamples = 1\nvalue = 1.21", fillcolor="#fefcfa"] ;
147 -> 148 ;
149 [label="squared_error = 0.0\nsamples = 1\nvalue = 1.09", fillcolor="#fefcfb"] ;
147 -> 149 ;
150 [label="percent_below_poverty_line <= 11.95\nsquared_error = 0.74\nsamples = 3\nvalue = 2.93", fillcolor="#fdf8f3"] ;
138 -> 150 ;
151 [label="squared_error = 0.0\nsamples = 1\nvalue = 1.47", fillcolor="#fefbf9"] ;
150 -> 151 ;
152 [label="percent_uninsured <= 6.55\nsquared_error = 0.05\nsamples = 2\nvalue = 3.41", fillcolor="#fdf6f2"] ;
150 -> 152 ;
153 [label="squared_error = 0.0\nsamples = 1\nvalue = 3.11", fillcolor="#fdf7f3"] ;
152 -> 153 ;
154 [label="squared_error = 0.0\nsamples = 1\nvalue = 3.56", fillcolor="#fdf6f1"] ;
152 -> 154 ;
155 [label="percent_households_more_people_than_rooms <= 9.0\nsquared_error = 77.92\nsamples = 65\nvalue = 11.1", fillcolor="#f9e3d3"] ;
1 -> 155 ;
156 [label="percent_over_65 <= 16.65\nsquared_error = 50.87\nsamples = 62\nvalue = 10.07", fillcolor="#fae6d7"] ;
155 -> 156 ;
157 [label="population_density <= 22.92\nsquared_error = 53.38\nsamples = 35\nvalue = 12.79", fillcolor="#f8dfcd"] ;
156 -> 157 ;
158 [label="percent_freq_or_always_mask_use <= 0.87\nsquared_error = 52.44\nsamples = 6\nvalue = 25.61", fillcolor="#f2bf9a"] ;
157 -> 158 ;
159 [label="percent_households_more_people_than_rooms <= 3.65\nsquared_error = 11.33\nsamples = 3\nvalue = 18.21", fillcolor="#f6d1b7"] ;
158 -> 159 ;
160 [label="squared_error = 0.0\nsamples = 1\nvalue = 13.48", fillcolor="#f8ddca"] ;
159 -> 160 ;
161 [label="telework_score <= 0.27\nsquared_error = 0.2\nsamples = 2\nvalue = 20.58", fillcolor="#f4cbae"] ;
159 -> 161 ;
162 [label="squared_error = 0.0\nsamples = 1\nvalue = 20.12", fillcolor="#f5cdb0"] ;
161 -> 162 ;
163 [label="squared_error = 0.0\nsamples = 1\nvalue = 21.03", fillcolor="#f4caac"] ;
161 -> 163 ;
164 [label="percent_households_more_people_than_rooms <= 1.3\nsquared_error = 11.3\nsamples = 3\nvalue = 31.17", fillcolor="#efb184"] ;
158 -> 164 ;
165 [label="squared_error = 0.0\nsamples = 1\nvalue = 36.8", fillcolor="#eca36e"] ;
164 -> 165 ;
166 [label="population_density <= 5.09\nsquared_error = 0.97\nsamples = 2\nvalue = 29.29", fillcolor="#f0b68c"] ;
164 -> 166 ;
167 [label="squared_error = 0.0\nsamples = 1\nvalue = 28.59", fillcolor="#f0b78e"] ;
166 -> 167 ;
168 [label="squared_error = 0.0\nsamples = 1\nvalue = 30.68", fillcolor="#efb286"] ;
166 -> 168 ;
169 [label="population_density <= 1341.15\nsquared_error = 27.25\nsamples = 29\nvalue = 10.99", fillcolor="#f9e3d4"] ;
157 -> 169 ;
170 [label="percent_republican_2016_pres <= 0.47\nsquared_error = 21.99\nsamples = 22\nvalue = 9.38", fillcolor="#fae8da"] ;
169 -> 170 ;
171 [label="percent_racial_minority <= 46.25\nsquared_error = 11.97\nsamples = 13\nvalue = 6.68", fillcolor="#fceee5"] ;
170 -> 171 ;
172 [label="percent_uninsured <= 6.45\nsquared_error = 7.73\nsamples = 11\nvalue = 7.84", fillcolor="#fbebe0"] ;
171 -> 172 ;
173 [label="percent_without_high_school_diploma <= 4.5\nsquared_error = 3.05\nsamples = 8\nvalue = 6.72", fillcolor="#fceee5"] ;
172 -> 173 ;
174 [label="squared_error = 0.0\nsamples = 1\nvalue = 2.01", fillcolor="#fefaf7"] ;
173 -> 174 ;
175 [label="percent_households_more_people_than_rooms <= 2.4\nsquared_error = 1.29\nsamples = 7\nvalue = 7.12", fillcolor="#fbede3"] ;
173 -> 175 ;
176 [label="percent_households_more_people_than_rooms <= 1.25\nsquared_error = 0.9\nsamples = 4\nvalue = 8.02", fillcolor="#fbebdf"] ;
175 -> 176 ;
177 [label="squared_error = 0.0\nsamples = 1\nvalue = 5.95", fillcolor="#fcf0e8"] ;
176 -> 177 ;
178 [label="percent_without_high_school_diploma <= 9.8\nsquared_error = 0.05\nsamples = 3\nvalue = 8.44", fillcolor="#fbeade"] ;
176 -> 178 ;
179 [label="percent_over_65 <= 14.05\nsquared_error = 0.0\nsamples = 2\nvalue = 8.62", fillcolor="#fbe9dd"] ;
178 -> 179 ;
180 [label="squared_error = 0.0\nsamples = 1\nvalue = 8.62", fillcolor="#fbe9dd"] ;
179 -> 180 ;
181 [label="squared_error = 0.0\nsamples = 1\nvalue = 8.62", fillcolor="#fbe9dd"] ;
179 -> 181 ;
182 [label="squared_error = 0.0\nsamples = 1\nvalue = 8.17", fillcolor="#fbebdf"] ;
178 -> 182 ;
183 [label="percent_without_high_school_diploma <= 7.35\nsquared_error = 0.03\nsamples = 3\nvalue = 6.21", fillcolor="#fcefe7"] ;
175 -> 183 ;
184 [label="percent_racial_minority <= 35.95\nsquared_error = 0.0\nsamples = 2\nvalue = 6.28", fillcolor="#fcefe6"] ;
183 -> 184 ;
185 [label="squared_error = 0.0\nsamples = 1\nvalue = 6.36", fillcolor="#fcefe6"] ;
184 -> 185 ;
186 [label="squared_error = 0.0\nsamples = 1\nvalue = 6.24", fillcolor="#fcefe6"] ;
184 -> 186 ;
187 [label="squared_error = 0.0\nsamples = 1\nvalue = 5.82", fillcolor="#fcf0e8"] ;
183 -> 187 ;
188 [label="start_date <= 1.592092837019648e+18\nsquared_error = 5.82\nsamples = 3\nvalue = 11.45", fillcolor="#f9e2d2"] ;
172 -> 188 ;
189 [label="percent_uninsured <= 6.8\nsquared_error = 0.74\nsamples = 2\nvalue = 9.12", fillcolor="#fae8db"] ;
188 -> 189 ;
190 [label="squared_error = 0.0\nsamples = 1\nvalue = 9.98", fillcolor="#fae6d8"] ;
189 -> 190 ;
191 [label="squared_error = 0.0\nsamples = 1\nvalue = 8.26", fillcolor="#fbeadf"] ;
189 -> 191 ;
192 [label="squared_error = 0.0\nsamples = 1\nvalue = 13.79", fillcolor="#f8dcc9"] ;
188 -> 192 ;
193 [label="percent_without_high_school_diploma <= 17.65\nsquared_error = 0.16\nsamples = 2\nvalue = 1.77", fillcolor="#fefbf8"] ;
171 -> 193 ;
194 [label="squared_error = 0.0\nsamples = 1\nvalue = 1.07", fillcolor="#fefcfb"] ;
193 -> 194 ;
195 [label="squared_error = -0.0\nsamples = 1\nvalue = 2.0", fillcolor="#fefaf7"] ;
193 -> 195 ;
196 [label="median_non_home_dwell_time_percent_increase_jan_to_april <= -417.05\nsquared_error = 15.25\nsamples = 9\nvalue = 12.53", fillcolor="#f9e0ce"] ;
170 -> 196 ;
197 [label="telework_score <= 0.32\nsquared_error = 7.07\nsamples = 4\nvalue = 15.59", fillcolor="#f7d8c2"] ;
196 -> 197 ;
198 [label="median_non_home_dwell_time_percent_increase_jan_to_april <= -495.76\nsquared_error = 0.17\nsamples = 2\nvalue = 17.61", fillcolor="#f6d3ba"] ;
197 -> 198 ;
199 [label="squared_error = 0.0\nsamples = 1\nvalue = 17.4", fillcolor="#f6d3bb"] ;
198 -> 199 ;
200 [label="squared_error = 0.0\nsamples = 1\nvalue = 18.42", fillcolor="#f5d1b7"] ;
198 -> 200 ;
201 [label="percent_republican_2016_pres <= 0.51\nsquared_error = 0.54\nsamples = 2\nvalue = 12.24", fillcolor="#f9e0cf"] ;
197 -> 201 ;
202 [label="squared_error = 0.0\nsamples = 1\nvalue = 11.2", fillcolor="#f9e3d3"] ;
201 -> 202 ;
203 [label="squared_error = 0.0\nsamples = 1\nvalue = 12.75", fillcolor="#f8dfcd"] ;
201 -> 203 ;
204 [label="percent_over_65 <= 13.45\nsquared_error = 8.3\nsamples = 5\nvalue = 10.08", fillcolor="#fae6d7"] ;
196 -> 204 ;
205 [label="percent_without_high_school_diploma <= 21.95\nsquared_error = 1.73\nsamples = 2\nvalue = 13.08", fillcolor="#f8decc"] ;
204 -> 205 ;
206 [label="squared_error = 0.0\nsamples = 1\nvalue = 15.36", fillcolor="#f7d9c3"] ;
205 -> 206 ;
207 [label="squared_error = -0.0\nsamples = 1\nvalue = 12.32", fillcolor="#f9e0cf"] ;
205 -> 207 ;
208 [label="percent_without_high_school_diploma <= 11.05\nsquared_error = 2.68\nsamples = 3\nvalue = 8.08", fillcolor="#fbebdf"] ;
204 -> 208 ;
209 [label="squared_error = -0.0\nsamples = 1\nvalue = 9.68", fillcolor="#fae7d9"] ;
208 -> 209 ;
210 [label="percent_households_more_people_than_rooms <= 4.7\nsquared_error = 0.28\nsamples = 2\nvalue = 6.49", fillcolor="#fcefe5"] ;
208 -> 210 ;
211 [label="squared_error = 0.0\nsamples = 1\nvalue = 6.86", fillcolor="#fbeee4"] ;
210 -> 211 ;
212 [label="squared_error = 0.0\nsamples = 1\nvalue = 5.73", fillcolor="#fcf1e8"] ;
210 -> 212 ;
213 [label="telework_score <= 0.37\nsquared_error = 4.04\nsamples = 7\nvalue = 16.71", fillcolor="#f6d5bd"] ;
169 -> 213 ;
214 [label="percent_households_more_people_than_rooms <= 3.0\nsquared_error = 2.68\nsamples = 4\nvalue = 18.37", fillcolor="#f6d1b7"] ;
213 -> 214 ;
215 [label="telework_score <= 0.34\nsquared_error = 0.18\nsamples = 2\nvalue = 16.39", fillcolor="#f7d6bf"] ;
214 -> 215 ;
216 [label="squared_error = 0.0\nsamples = 1\nvalue = 15.96", fillcolor="#f7d7c0"] ;
215 -> 216 ;
217 [label="squared_error = -0.0\nsamples = 1\nvalue = 16.82", fillcolor="#f6d5bd"] ;
215 -> 217 ;
218 [label="percent_without_high_school_diploma <= 12.75\nsquared_error = 0.01\nsamples = 2\nvalue = 19.68", fillcolor="#f5ceb2"] ;
214 -> 218 ;
219 [label="squared_error = 0.0\nsamples = 1\nvalue = 19.61", fillcolor="#f5ceb2"] ;
218 -> 219 ;
220 [label="squared_error = 0.0\nsamples = 1\nvalue = 19.83", fillcolor="#f5cdb1"] ;
218 -> 220 ;
221 [label="percent_freq_or_always_mask_use <= 0.91\nsquared_error = 0.97\nsamples = 3\nvalue = 15.32", fillcolor="#f7d9c3"] ;
213 -> 221 ;
222 [label="squared_error = 0.0\nsamples = 1\nvalue = 14.01", fillcolor="#f8dcc8"] ;
221 -> 222 ;
223 [label="percent_republican_2016_pres <= 0.16\nsquared_error = 0.17\nsamples = 2\nvalue = 15.98", fillcolor="#f7d7c0"] ;
221 -> 223 ;
224 [label="squared_error = 0.0\nsamples = 1\nvalue = 15.28", fillcolor="#f7d9c3"] ;
223 -> 224 ;
225 [label="squared_error = 0.0\nsamples = 1\nvalue = 16.21", fillcolor="#f7d6bf"] ;
223 -> 225 ;
226 [label="percent_households_more_people_than_rooms <= 2.15\nsquared_error = 25.67\nsamples = 27\nvalue = 6.55", fillcolor="#fcefe5"] ;
156 -> 226 ;
227 [label="percent_racial_minority <= 17.75\nsquared_error = 11.03\nsamples = 18\nvalue = 4.62", fillcolor="#fdf3ed"] ;
226 -> 227 ;
228 [label="percent_over_65 <= 23.85\nsquared_error = 5.22\nsamples = 6\nvalue = 8.36", fillcolor="#fbeade"] ;
227 -> 228 ;
229 [label="percent_over_65 <= 18.7\nsquared_error = 1.18\nsamples = 5\nvalue = 7.58", fillcolor="#fbece1"] ;
228 -> 229 ;
230 [label="telework_score <= 0.34\nsquared_error = 0.36\nsamples = 3\nvalue = 8.4", fillcolor="#fbeade"] ;
229 -> 230 ;
231 [label="population_density <= 380.36\nsquared_error = 0.05\nsamples = 2\nvalue = 8.07", fillcolor="#fbebdf"] ;
230 -> 231 ;
232 [label="squared_error = 0.0\nsamples = 1\nvalue = 7.75", fillcolor="#fbece0"] ;
231 -> 232 ;
233 [label="squared_error = 0.0\nsamples = 1\nvalue = 8.23", fillcolor="#fbeadf"] ;
231 -> 233 ;
234 [label="squared_error = -0.0\nsamples = 1\nvalue = 9.39", fillcolor="#fae7da"] ;
230 -> 234 ;
235 [label="telework_score <= 0.3\nsquared_error = 0.17\nsamples = 2\nvalue = 6.49", fillcolor="#fcefe5"] ;
229 -> 235 ;
236 [label="squared_error = 0.0\nsamples = 1\nvalue = 6.2", fillcolor="#fcefe7"] ;
235 -> 236 ;
237 [label="squared_error = 0.0\nsamples = 1\nvalue = 7.07", fillcolor="#fbede3"] ;
235 -> 237 ;
238 [label="squared_error = 0.0\nsamples = 1\nvalue = 13.77", fillcolor="#f8ddc9"] ;
228 -> 238 ;
239 [label="population_density <= 1182.42\nsquared_error = 5.13\nsamples = 12\nvalue = 3.05", fillcolor="#fdf7f3"] ;
227 -> 239 ;
240 [label="telework_score <= 0.26\nsquared_error = 2.49\nsamples = 11\nvalue = 2.65", fillcolor="#fef8f5"] ;
239 -> 240 ;
241 [label="squared_error = 0.0\nsamples = 1\nvalue = 0.0", fillcolor="#ffffff"] ;
240 -> 241 ;
242 [label="percent_freq_or_always_mask_use <= 0.83\nsquared_error = 1.29\nsamples = 10\nvalue = 3.19", fillcolor="#fdf7f2"] ;
240 -> 242 ;
243 [label="percent_over_65 <= 24.8\nsquared_error = 1.14\nsamples = 3\nvalue = 4.71", fillcolor="#fdf3ec"] ;
242 -> 243 ;
244 [label="percent_households_more_people_than_rooms <= 1.95\nsquared_error = 0.13\nsamples = 2\nvalue = 5.43", fillcolor="#fcf1ea"] ;
243 -> 244 ;
245 [label="squared_error = 0.0\nsamples = 1\nvalue = 5.07", fillcolor="#fcf2eb"] ;
244 -> 245 ;
246 [label="squared_error = -0.0\nsamples = 1\nvalue = 5.8", fillcolor="#fcf0e8"] ;
244 -> 246 ;
247 [label="squared_error = 0.0\nsamples = 1\nvalue = 3.25", fillcolor="#fdf7f2"] ;
243 -> 247 ;
248 [label="percent_below_poverty_line <= 9.15\nsquared_error = 0.61\nsamples = 7\nvalue = 2.81", fillcolor="#fef8f4"] ;
242 -> 248 ;
249 [label="telework_score <= 0.39\nsquared_error = 0.02\nsamples = 2\nvalue = 1.34", fillcolor="#fefcfa"] ;
248 -> 249 ;
250 [label="squared_error = 0.0\nsamples = 1\nvalue = 1.21", fillcolor="#fefcfa"] ;
249 -> 250 ;
251 [label="squared_error = 0.0\nsamples = 1\nvalue = 1.46", fillcolor="#fefbf9"] ;
249 -> 251 ;
252 [label="median_non_home_dwell_time_percent_increase_jan_to_april <= -424.93\nsquared_error = 0.21\nsamples = 5\nvalue = 3.1", fillcolor="#fdf7f3"] ;
248 -> 252 ;
253 [label="squared_error = 0.0\nsamples = 1\nvalue = 4.27", fillcolor="#fdf4ee"] ;
252 -> 253 ;
254 [label="percent_republican_2016_pres <= 0.59\nsquared_error = 0.06\nsamples = 4\nvalue = 2.97", fillcolor="#fdf8f3"] ;
252 -> 254 ;
255 [label="percent_racial_minority <= 72.95\nsquared_error = 0.03\nsamples = 3\nvalue = 3.12", fillcolor="#fdf7f3"] ;
254 -> 255 ;
256 [label="median_non_home_dwell_time_percent_increase_jan_to_april <= -87.91\nsquared_error = 0.0\nsamples = 2\nvalue = 3.01", fillcolor="#fdf7f3"] ;
255 -> 256 ;
257 [label="squared_error = 0.0\nsamples = 1\nvalue = 3.05", fillcolor="#fdf7f3"] ;
256 -> 257 ;
258 [label="squared_error = 0.0\nsamples = 1\nvalue = 2.97", fillcolor="#fdf8f3"] ;
256 -> 258 ;
259 [label="squared_error = -0.0\nsamples = 1\nvalue = 3.34", fillcolor="#fdf7f2"] ;
255 -> 259 ;
260 [label="squared_error = 0.0\nsamples = 1\nvalue = 2.67", fillcolor="#fef8f4"] ;
254 -> 260 ;
261 [label="squared_error = -0.0\nsamples = 1\nvalue = 10.11", fillcolor="#fae6d7"] ;
239 -> 261 ;
262 [label="percent_households_more_people_than_rooms <= 4.95\nsquared_error = 33.59\nsamples = 9\nvalue = 9.62", fillcolor="#fae7d9"] ;
226 -> 262 ;
263 [label="percent_racial_minority <= 26.05\nsquared_error = 22.69\nsamples = 6\nvalue = 12.79", fillcolor="#f8dfcd"] ;
262 -> 263 ;
264 [label="percent_uninsured <= 7.6\nsquared_error = 0.82\nsamples = 3\nvalue = 8.67", fillcolor="#fbe9dd"] ;
263 -> 264 ;
265 [label="squared_error = 0.0\nsamples = 1\nvalue = 6.83", fillcolor="#fbeee4"] ;
264 -> 265 ;
266 [label="median_non_home_dwell_time_percent_increase_jan_to_april <= -460.73\nsquared_error = 0.18\nsamples = 2\nvalue = 9.03", fillcolor="#fae8db"] ;
264 -> 266 ;
267 [label="squared_error = 0.0\nsamples = 1\nvalue = 8.82", fillcolor="#fae9dc"] ;
266 -> 267 ;
268 [label="squared_error = -0.0\nsamples = 1\nvalue = 9.88", fillcolor="#fae6d8"] ;
266 -> 268 ;
269 [label="percent_without_high_school_diploma <= 15.15\nsquared_error = 4.14\nsamples = 3\nvalue = 17.73", fillcolor="#f6d3b9"] ;
263 -> 269 ;
270 [label="squared_error = 0.0\nsamples = 1\nvalue = 21.62", fillcolor="#f4c9aa"] ;
269 -> 270 ;
271 [label="percent_below_poverty_line <= 25.4\nsquared_error = 0.46\nsamples = 2\nvalue = 16.76", fillcolor="#f6d5bd"] ;
269 -> 271 ;
272 [label="squared_error = 0.0\nsamples = 1\nvalue = 17.43", fillcolor="#f6d3ba"] ;
271 -> 272 ;
273 [label="squared_error = -0.0\nsamples = 1\nvalue = 16.08", fillcolor="#f7d7c0"] ;
271 -> 273 ;
274 [label="percent_households_more_people_than_rooms <= 5.25\nsquared_error = 1.5\nsamples = 3\nvalue = 3.81", fillcolor="#fdf5f0"] ;
262 -> 274 ;
275 [label="percent_freq_or_always_mask_use <= 0.86\nsquared_error = 0.56\nsamples = 2\nvalue = 3.06", fillcolor="#fdf7f3"] ;
274 -> 275 ;
276 [label="squared_error = 0.0\nsamples = 1\nvalue = 3.49", fillcolor="#fdf6f1"] ;
275 -> 276 ;
277 [label="squared_error = 0.0\nsamples = 1\nvalue = 1.77", fillcolor="#fefbf8"] ;
275 -> 277 ;
278 [label="squared_error = 0.0\nsamples = 1\nvalue = 5.32", fillcolor="#fcf2ea"] ;
274 -> 278 ;
279 [label="percent_over_65 <= 12.65\nsquared_error = 58.95\nsamples = 3\nvalue = 37.08", fillcolor="#eca26d"] ;
155 -> 279 ;
280 [label="squared_error = 0.0\nsamples = 1\nvalue = 50.32", fillcolor="#e58139"] ;
279 -> 280 ;
281 [label="percent_republican_2016_pres <= 0.33\nsquared_error = 0.68\nsamples = 2\nvalue = 32.67", fillcolor="#eead7e"] ;
279 -> 281 ;
282 [label="squared_error = 0.0\nsamples = 1\nvalue = 33.25", fillcolor="#eeac7c"] ;
281 -> 282 ;
283 [label="squared_error = 0.0\nsamples = 1\nvalue = 31.51", fillcolor="#efb083"] ;
281 -> 283 ;
284 [label="percent_without_high_school_diploma <= 12.4\nsquared_error = 97.3\nsamples = 13\nvalue = 33.53", fillcolor="#eeab7b"] ;
0 -> 284 [labeldistance=2.5, labelangle=-45, headlabel="False"] ;
285 [label="percent_over_65 <= 21.9\nsquared_error = 46.77\nsamples = 9\nvalue = 27.02", fillcolor="#f1bb95"] ;
284 -> 285 ;
286 [label="telework_score <= 0.29\nsquared_error = 6.39\nsamples = 4\nvalue = 31.69", fillcolor="#efb082"] ;
285 -> 286 ;
287 [label="squared_error = 0.0\nsamples = 1\nvalue = 35.44", fillcolor="#eda674"] ;
286 -> 287 ;
288 [label="percent_below_poverty_line <= 13.9\nsquared_error = 1.09\nsamples = 3\nvalue = 30.2", fillcolor="#efb388"] ;
286 -> 288 ;
289 [label="squared_error = 0.0\nsamples = 1\nvalue = 28.19", fillcolor="#f0b890"] ;
288 -> 289 ;
290 [label="percent_republican_2016_pres <= 0.52\nsquared_error = 0.12\nsamples = 2\nvalue = 30.7", fillcolor="#efb286"] ;
288 -> 290 ;
291 [label="squared_error = 0.0\nsamples = 1\nvalue = 30.11", fillcolor="#efb489"] ;
290 -> 291 ;
292 [label="squared_error = 0.0\nsamples = 1\nvalue = 30.89", fillcolor="#efb285"] ;
290 -> 292 ;
293 [label="percent_freq_or_always_mask_use <= 0.66\nsquared_error = 43.53\nsamples = 5\nvalue = 22.35", fillcolor="#f3c7a7"] ;
285 -> 293 ;
294 [label="squared_error = 0.0\nsamples = 1\nvalue = 31.68", fillcolor="#efb082"] ;
293 -> 294 ;
295 [label="percent_racial_minority <= 12.0\nsquared_error = 12.27\nsamples = 4\nvalue = 18.62", fillcolor="#f5d0b6"] ;
293 -> 295 ;
296 [label="percent_without_high_school_diploma <= 9.75\nsquared_error = 1.59\nsamples = 2\nvalue = 14.79", fillcolor="#f7dac5"] ;
295 -> 296 ;
297 [label="squared_error = 0.0\nsamples = 1\nvalue = 13.53", fillcolor="#f8ddca"] ;
296 -> 297 ;
298 [label="squared_error = 0.0\nsamples = 1\nvalue = 16.06", fillcolor="#f7d7c0"] ;
296 -> 298 ;
299 [label="percent_over_65 <= 24.9\nsquared_error = 3.1\nsamples = 2\nvalue = 21.18", fillcolor="#f4caac"] ;
295 -> 299 ;
300 [label="squared_error = 0.0\nsamples = 1\nvalue = 19.93", fillcolor="#f5cdb1"] ;
299 -> 300 ;
301 [label="squared_error = -0.0\nsamples = 1\nvalue = 23.67", fillcolor="#f3c4a2"] ;
299 -> 301 ;
302 [label="percent_below_poverty_line <= 19.8\nsquared_error = 7.77\nsamples = 4\nvalue = 43.64", fillcolor="#e89253"] ;
284 -> 302 ;
303 [label="percent_freq_or_always_mask_use <= 0.83\nsquared_error = 1.83\nsamples = 3\nvalue = 41.83", fillcolor="#e9965a"] ;
302 -> 303 ;
304 [label="squared_error = 0.0\nsamples = 1\nvalue = 39.23", fillcolor="#eb9d65"] ;
303 -> 304 ;
305 [label="percent_republican_2016_pres <= 0.5\nsquared_error = 0.57\nsamples = 2\nvalue = 42.35", fillcolor="#e99558"] ;
303 -> 305 ;
306 [label="squared_error = 0.0\nsamples = 1\nvalue = 43.86", fillcolor="#e89152"] ;
305 -> 306 ;
307 [label="squared_error = 0.0\nsamples = 1\nvalue = 41.98", fillcolor="#e9965a"] ;
305 -> 307 ;
308 [label="squared_error = 0.0\nsamples = 1\nvalue = 47.26", fillcolor="#e78945"] ;
302 -> 308 ;
}